<?xml version="1.0"?>
<opencv_storage>
<stage17>
  <maxWeakCount>42</maxWeakCount>
  <stageThreshold>-8.9982002973556519e-01</stageThreshold>
  <weakClassifiers>
    <_>
      <internalNodes>
        0 -1 63702 -2.1165527403354645e-02</internalNodes>
      <leafValues>
        3.8181817531585693e-01 -1.9519095122814178e-01</leafValues></_>
    <_>
      <internalNodes>
        0 -1 142443 -4.9745455384254456e-02</internalNodes>
      <leafValues>
        4.1751983761787415e-01 -1.1620193719863892e-01</leafValues></_>
    <_>
      <internalNodes>
        0 -1 175917 -1.2864914606325328e-04</internalNodes>
      <leafValues>
        -3.4106874465942383e-01 1.3115929067134857e-01</leafValues></_>
    <_>
      <internalNodes>
        0 -1 127855 8.5084736347198486e-03</internalNodes>
      <leafValues>
        -1.2120681256055832e-01 5.1872467994689941e-01</leafValues></_>
    <_>
      <internalNodes>
        0 -1 67890 8.2153175026178360e-03</internalNodes>
      <leafValues>
        -1.5558168292045593e-01 2.4924564361572266e-01</leafValues></_>
    <_>
      <internalNodes>
        0 -1 7037 3.0278973281383514e-04</internalNodes>
      <leafValues>
        7.8323826193809509e-02 -4.2813828587532043e-01</leafValues></_>
    <_>
      <internalNodes>
        0 -1 6957 1.0320767760276794e-02</internalNodes>
      <leafValues>
        -1.6104850172996521e-01 2.6360186934471130e-01</leafValues></_>
    <_>
      <internalNodes>
        0 -1 175917 9.0180670667905360e-05</internalNodes>
      <leafValues>
        1.4042636752128601e-01 -2.7452224493026733e-01</leafValues></_>
    <_>
      <internalNodes>
        0 -1 65393 2.4670895189046860e-02</internalNodes>
      <leafValues>
        -1.8507841229438782e-01 2.3961377143859863e-01</leafValues></_>
    <_>
      <internalNodes>
        0 -1 107144 1.1292700946796685e-04</internalNodes>
      <leafValues>
        -1.4790254831314087e-01 2.4278627336025238e-01</leafValues></_>
    <_>
      <internalNodes>
        0 -1 8006 -3.7910755723714828e-02</internalNodes>
      <leafValues>
        3.9866000413894653e-01 -1.0572613030672073e-01</leafValues></_>
    <_>
      <internalNodes>
        0 -1 3403 3.4934923052787781e-02</internalNodes>
      <leafValues>
        -1.2373098731040955e-01 3.6048352718353271e-01</leafValues></_>
    <_>
      <internalNodes>
        0 -1 50877 -4.0931059047579765e-03</internalNodes>
      <leafValues>
        -5.9381932020187378e-01 7.4120998382568359e-02</leafValues></_>
    <_>
      <internalNodes>
        0 -1 20793 -1.4281142503023148e-02</internalNodes>
      <leafValues>
        -3.0383488535881042e-01 9.7697466611862183e-02</leafValues></_>
    <_>
      <internalNodes>
        0 -1 83989 1.2524414807558060e-02</internalNodes>
      <leafValues>
        1.0211753845214844e-01 -3.5851103067398071e-01</leafValues></_>
    <_>
      <internalNodes>
        0 -1 4955 -4.2898289859294891e-02</internalNodes>
      <leafValues>
        -4.6644097566604614e-01 5.9846077114343643e-02</leafValues></_>
    <_>
      <internalNodes>
        0 -1 1228 -1.1580664431676269e-04</internalNodes>
      <leafValues>
        -2.7719190716743469e-01 1.2446505576372147e-01</leafValues></_>
    <_>
      <internalNodes>
        0 -1 19615 3.1978435814380646e-02</internalNodes>
      <leafValues>
        -4.3843466788530350e-02 6.7005842924118042e-01</leafValues></_>
    <_>
      <internalNodes>
        0 -1 151961 1.1074771464336663e-05</internalNodes>
      <leafValues>
        -1.8747498095035553e-01 1.7431589961051941e-01</leafValues></_>
    <_>
      <internalNodes>
        0 -1 131273 5.8869790518656373e-04</internalNodes>
      <leafValues>
        -1.3136063516139984e-01 2.3440057039260864e-01</leafValues></_>
    <_>
      <internalNodes>
        0 -1 100318 1.2831625528633595e-02</internalNodes>
      <leafValues>
        -1.1174535751342773e-01 3.0198389291763306e-01</leafValues></_>
    <_>
      <internalNodes>
        0 -1 109972 -1.0589084587991238e-02</internalNodes>
      <leafValues>
        1.5032353997230530e-01 -2.1937173604965210e-01</leafValues></_>
    <_>
      <internalNodes>
        0 -1 130158 -2.4103231728076935e-02</internalNodes>
      <leafValues>
        -5.0528216361999512e-01 6.4752884209156036e-02</leafValues></_>
    <_>
      <internalNodes>
        0 -1 175036 -3.5282727912999690e-04</internalNodes>
      <leafValues>
        -3.4119978547096252e-01 9.0273827314376831e-02</leafValues></_>
    <_>
      <internalNodes>
        0 -1 156377 -8.7512560188770294e-02</internalNodes>
      <leafValues>
        5.6258344650268555e-01 -5.4159447550773621e-02</leafValues></_>
    <_>
      <internalNodes>
        0 -1 76586 3.8391971029341221e-03</internalNodes>
      <leafValues>
        7.8163757920265198e-02 -4.3825468420982361e-01</leafValues></_>
    <_>
      <internalNodes>
        0 -1 138722 -3.2686285674571991e-02</internalNodes>
      <leafValues>
        3.4754925966262817e-01 -9.0651534497737885e-02</leafValues></_>
    <_>
      <internalNodes>
        0 -1 146255 3.2656459370627999e-04</internalNodes>
      <leafValues>
        -1.6087424755096436e-01 2.0467777550220490e-01</leafValues></_>
    <_>
      <internalNodes>
        0 -1 123882 -6.9760091602802277e-02</internalNodes>
      <leafValues>
        -8.7455475330352783e-01 4.1265279054641724e-02</leafValues></_>
    <_>
      <internalNodes>
        0 -1 118321 2.4062865413725376e-03</internalNodes>
      <leafValues>
        -1.2461492419242859e-01 2.5228053331375122e-01</leafValues></_>
    <_>
      <internalNodes>
        0 -1 159530 3.9783474057912827e-03</internalNodes>
      <leafValues>
        5.4551541805267334e-02 -5.4849380254745483e-01</leafValues></_>
    <_>
      <internalNodes>
        0 -1 71043 -7.8847501426935196e-03</internalNodes>
      <leafValues>
        3.9403063058853149e-01 -7.8209474682807922e-02</leafValues></_>
    <_>
      <internalNodes>
        0 -1 150595 2.0327644888311625e-03</internalNodes>
      <leafValues>
        -1.4522774517536163e-01 2.7171403169631958e-01</leafValues></_>
    <_>
      <internalNodes>
        0 -1 157272 3.5157904494553804e-03</internalNodes>
      <leafValues>
        -1.2843939661979675e-01 2.6974597573280334e-01</leafValues></_>
    <_>
      <internalNodes>
        0 -1 1 2.1118271979503334e-04</internalNodes>
      <leafValues>
        8.1002123653888702e-02 -4.3805027008056641e-01</leafValues></_>
    <_>
      <internalNodes>
        0 -1 3 -6.1100348830223083e-05</internalNodes>
      <leafValues>
        -2.5504478812217712e-01 1.2139138579368591e-01</leafValues></_>
    <_>
      <internalNodes>
        0 -1 107966 -2.2270577028393745e-03</internalNodes>
      <leafValues>
        1.6623093187808990e-01 -1.9670684635639191e-01</leafValues></_>
    <_>
      <internalNodes>
        0 -1 136888 -6.7727146670222282e-03</internalNodes>
      <leafValues>
        -5.1934319734573364e-01 6.4697585999965668e-02</leafValues></_>
    <_>
      <internalNodes>
        0 -1 151960 2.3848726414144039e-04</internalNodes>
      <leafValues>
        -1.3531310856342316e-01 2.4265046417713165e-01</leafValues></_>
    <_>
      <internalNodes>
        0 -1 60649 4.2347883572801948e-04</internalNodes>
      <leafValues>
        -1.4872176945209503e-01 2.1580016613006592e-01</leafValues></_>
    <_>
      <internalNodes>
        0 -1 2261 -1.3871033675968647e-02</internalNodes>
      <leafValues>
        4.6789237856864929e-01 -6.1375562101602554e-02</leafValues></_>
    <_>
      <internalNodes>
        0 -1 5249 2.4647588725201786e-04</internalNodes>
      <leafValues>
        1.6040268540382385e-01 -1.9025921821594238e-01</leafValues></_></weakClassifiers></stage17>
</opencv_storage>
