<?xml version="1.0"?>
<opencv_storage>
<stage1>
  <maxWeakCount>13</maxWeakCount>
  <stageThreshold>-1.1434972286224365e+00</stageThreshold>
  <weakClassifiers>
    <_>
      <internalNodes>
        0 -1 49109 2.4912964552640915e-02</internalNodes>
      <leafValues>
        -3.3615222573280334e-01 6.2926828861236572e-01</leafValues></_>
    <_>
      <internalNodes>
        0 -1 94458 2.4700058624148369e-02</internalNodes>
      <leafValues>
        -2.3374204337596893e-01 4.9626472592353821e-01</leafValues></_>
    <_>
      <internalNodes>
        0 -1 11583 -3.5191551432944834e-04</internalNodes>
      <leafValues>
        -6.2478244304656982e-01 2.1315838396549225e-01</leafValues></_>
    <_>
      <internalNodes>
        0 -1 39537 2.7174279093742371e-02</internalNodes>
      <leafValues>
        -4.0819796919822693e-01 2.9443719983100891e-01</leafValues></_>
    <_>
      <internalNodes>
        0 -1 17486 1.3088104128837585e-01</internalNodes>
      <leafValues>
        -1.7879658937454224e-01 7.5865250825881958e-01</leafValues></_>
    <_>
      <internalNodes>
        0 -1 4498 -4.0495038032531738e-02</internalNodes>
      <leafValues>
        6.3875532150268555e-01 -2.1754197776317596e-01</leafValues></_>
    <_>
      <internalNodes>
        0 -1 13389 1.0783122852444649e-03</internalNodes>
      <leafValues>
        1.6006159782409668e-01 -6.9087505340576172e-01</leafValues></_>
    <_>
      <internalNodes>
        0 -1 13343 -3.2385092345066369e-04</internalNodes>
      <leafValues>
        -5.5580639839172363e-01 2.4081352353096008e-01</leafValues></_>
    <_>
      <internalNodes>
        0 -1 49104 -1.6461847350001335e-02</internalNodes>
      <leafValues>
        5.4559725522994995e-01 -2.4907106161117554e-01</leafValues></_>
    <_>
      <internalNodes>
        0 -1 174357 4.4993602205067873e-04</internalNodes>
      <leafValues>
        2.5310194492340088e-01 -4.7633039951324463e-01</leafValues></_>
    <_>
      <internalNodes>
        0 -1 174357 -1.6125222900882363e-03</internalNodes>
      <leafValues>
        -7.2066658735275269e-01 1.0895260423421860e-01</leafValues></_>
    <_>
      <internalNodes>
        0 -1 141131 -2.0992577075958252e-02</internalNodes>
      <leafValues>
        7.3309576511383057e-01 -1.4207124710083008e-01</leafValues></_>
    <_>
      <internalNodes>
        0 -1 143608 2.3211076855659485e-02</internalNodes>
      <leafValues>
        -2.1726974844932556e-01 5.2567332983016968e-01</leafValues></_></weakClassifiers></stage1>
</opencv_storage>
